koralle 0.04885188117623329 -0.1429426670074463 -0.0871119275689125 -0.013799579814076424 0.06356403976678848 0.08655881881713867 -0.04189325124025345 -0.2911064326763153 0.22892946004867554 -0.060249365866184235 0.17673353850841522 0.0677870437502861 -0.06043137609958649 -0.036070384085178375 0.015621688216924667 0.04593384638428688 0.3060063421726227 0.3155204653739929 0.19154828786849976 0.05660459026694298 0.11332482844591141 -0.07438864558935165 0.15019217133522034 -0.030363118276000023 0.08652731776237488 -0.06729453057050705 -0.24656984210014343 -0.024984650313854218 0.03218560293316841 0.24021437764167786 -0.13232186436653137 0.054486196488142014 0.004680045414716005 0.06066693365573883 0.1752813458442688 0.1353795826435089 -0.01277231890708208 0.0386178083717823 -0.17416143417358398 0.048405278474092484 -0.17768032848834991 -0.33889061212539673 -0.16173216700553894 -0.05425792559981346 0.09036209434270859 -0.058213576674461365 -0.02387910708785057 -0.31268399953842163 -0.09069116413593292 0.047103382647037506 -0.03278718143701553 -0.07837272435426712 -0.07844440639019012 -0.020638059824705124 0.009679514914751053 0.12366338819265366 0.14943639934062958 0.08197072148323059 -0.19286635518074036 0.30208316445350647 -0.05539195239543915 0.06654218584299088 -0.1787910759449005 -0.02186955139040947 -0.06116478890180588 0.0422249510884285 -0.047371622174978256 0.019658884033560753 0.0018327003344893456 -0.24427691102027893 -0.0356818288564682 -0.09182632714509964 0.09909414499998093 -0.1842246800661087 -0.18492062389850616 0.10699701309204102 -0.004458656534552574 -0.13692785799503326 0.097168929874897 0.16336789727210999 -0.18512918055057526 0.14594203233718872 0.1507291942834854 0.17879806458950043 0.022251782938838005 0.18155670166015625 -0.09046325832605362 0.15516382455825806 7.520020008087158E-4 0.04232611507177353 0.18787452578544617 0.13569533824920654 0.06747699528932571 0.09102977812290192 0.10492677986621857 0.045265570282936096 0.060953233391046524 0.09759768098592758 0.24168819189071655 0.12368111312389374 0.3082866370677948 0.04230702668428421 -0.007324611768126488 0.1647290289402008 -0.1696470081806183 -0.09013333916664124 -0.06167273968458176 0.2663418650627136 0.3224555552005768 -0.019922029227018356 -0.25430309772491455 -0.152103453874588 0.043192487210035324 0.08524811267852783 0.033081796020269394 -0.02544449269771576 0.11959002912044525 0.07649888098239899 0.19600600004196167 -0.0746755301952362 0.21365101635456085 -0.020871350541710854 -0.09800354391336441 -0.2439630925655365 0.09273764491081238 0.2214529812335968 -0.05147827789187431 0.08505232632160187 -0.15377302467823029 0.1690136194229126 -0.12008676677942276 -0.1868762969970703 0.003124375594779849 0.022706136107444763 0.1345817744731903 -0.07014057040214539 0.08136872947216034 -0.047321490943431854 -0.13533300161361694 0.18361079692840576 0.33079615235328674 -0.1999450922012329 0.014663993380963802 -0.30172285437583923 -0.06186961382627487 -0.130898118019104 -0.04133621230721474 -0.15598465502262115 -0.08060231059789658 -0.1388765275478363
septakkord 0.02329861745238304 -0.04871409013867378 -0.12876544892787933 0.005390539765357971 0.1321944296360016 -0.03178384155035019 -0.09552855789661407 -0.17635929584503174 0.21035149693489075 -0.027900803834199905 0.13152433931827545 0.04988015443086624 -0.13604629039764404 -0.03402664512395859 0.007241439074277878 0.053250957280397415 0.17859488725662231 0.23026911914348602 0.12725472450256348 0.04282207041978836 0.04234553128480911 -0.17067700624465942 0.15671242773532867 0.04523102194070816 0.03909754753112793 0.05342383682727814 -0.24729964137077332 0.040520064532756805 0.12069286406040192 0.12539377808570862 -0.2034582942724228 0.1268087476491928 -0.06071106344461441 0.14575262367725372 0.09819173067808151 0.13067828118801117 -0.01754346862435341 1.387428492307663E-4 -0.07494253665208817 0.01303396187722683 -0.2353394478559494 -0.2213355451822281 -0.12122969329357147 -0.04691925644874573 0.1347569227218628 0.08905963599681854 -0.055083662271499634 -0.24278628826141357 -0.11586878448724747 0.0464506596326828 -0.009619299322366714 -0.18029487133026123 -0.03279969096183777 0.022282369434833527 -0.02468196488916874 0.11692196875810623 0.04466663673520088 0.03576838597655296 -0.3158007562160492 0.14644211530685425 -0.04805845394730568 0.10669766366481781 -0.10593847930431366 0.01757011190056801 0.00929148867726326 0.061957310885190964 -0.16013894975185394 0.0527554526925087 0.06083853542804718 -0.23536111414432526 -0.036632269620895386 -0.09554744511842728 -0.04557473212480545 -0.15214604139328003 -0.2190447896718979 0.09841350466012955 -0.01567961275577545 0.03508331999182701 0.05774113908410072 0.03358808904886246 -0.2569912075996399 0.13002486526966095 0.14154672622680664 0.05455496162176132 -0.07505588978528976 0.06722583621740341 -0.13380858302116394 0.14530178904533386 -0.052168138325214386 0.0018504131585359573 0.14860546588897705 0.07005380839109421 0.05546244606375694 0.07736261188983917 0.11247771978378296 0.07026471197605133 -0.001575845293700695 0.11359941214323044 0.17152740061283112 0.14063820242881775 0.26742666959762573 0.003451874479651451 0.002202201634645462 0.20311839878559113 -0.07948668301105499 -0.007752606645226479 -0.08885946869850159 0.16215208172798157 0.12686270475387573 -0.029820408672094345 -0.24555200338363647 -0.10875316709280014 0.05185806751251221 0.10769937932491302 -0.12424233555793762 -0.048695262521505356 0.06687156111001968 0.10886998474597931 0.14637205004692078 -0.05875208228826523 0.2271309643983841 -0.05655708163976669 -0.14653240144252777 -0.07237443327903748 0.11269797384738922 0.21809831261634827 -0.12156862020492554 0.07007642835378647 -0.12629491090774536 0.13015520572662354 -0.09365525841712952 -0.14986652135849 0.02852175384759903 -0.056422680616378784 0.13819129765033722 -0.07224652171134949 -0.027983130887150764 0.05585126951336861 1.434236764907837E-6 0.19571325182914734 0.28032708168029785 -0.08535514771938324 0.09191656112670898 -0.20031313598155975 -0.04158329963684082 -0.07899075001478195 0.015829920768737793 -0.08027607202529907 -0.09292835742235184 -0.0907483696937561
journal 0.2688519358634949 -0.2559927999973297 -0.10633894801139832 0.16016227006912231 0.26166844367980957 -0.045253854244947433 -0.33855608105659485 -0.20584088563919067 0.17324283719062805 0.08325408399105072 -0.18143802881240845 0.2473728507757187 -0.3425924479961395 -0.06978344172239304 0.11358299851417542 -0.03982796147465706 0.30358853936195374 0.35542890429496765 0.5281135439872742 0.28085121512413025 0.2910107970237732 -0.32523688673973083 0.09753739088773727 0.28829821944236755 0.05686157941818237 0.24998928606510162 -0.3317379951477051 0.04313622787594795 0.10695280879735947 0.144590362906456 -0.22833490371704102 -0.01117951050400734 -0.2542470097541809 0.20445728302001953 -0.31423598527908325 -0.010698901489377022 0.09592334181070328 -0.2652731239795685 0.041713058948516846 0.09425149857997894 -0.19941484928131104 -0.14171969890594482 -0.13094502687454224 -0.10055426508188248 0.1440398395061493 0.41878318786621094 -0.1502997726202011 -0.1098475232720375 -0.009282311424612999 0.10628437995910645 -4.0673493640497327E-4 -0.21065017580986023 -0.09930884838104248 0.053611814975738525 -0.10327907651662827 -0.01637682318687439 -0.08529007434844971 0.02454369328916073 -0.29079684615135193 0.26921379566192627 0.0306854210793972 0.39861389994621277 -0.09270656108856201 -0.08283752202987671 0.06571006029844284 0.047672439366579056 0.09499248117208481 0.29067251086235046 -0.24726857244968414 -0.18372513353824615 -0.23874270915985107 -0.24209918081760406 0.004617148078978062 0.09688053280115128 -0.4467889666557312 0.34205329418182373 -0.04719912260770798 -0.031803686171770096 -0.15327155590057373 0.07540539652109146 -0.13882778584957123 -0.1283528208732605 -0.0504891499876976 -0.007339508272707462 0.0676688477396965 0.46570947766304016 -0.11478978395462036 0.1794588714838028 0.19422100484371185 0.09136158972978592 0.4116533100605011 0.06725755333900452 0.20768047869205475 -0.15135574340820312 0.1577673852443695 0.13049480319023132 0.10833732038736343 0.009885406121611595 0.35478681325912476 -0.008474250324070454 0.2569288909435272 0.2230510413646698 0.035384651273489 0.1532244086265564 -0.09074480831623077 -0.10601161420345306 -0.08427520096302032 0.0811961442232132 0.10842492431402206 -0.18060308694839478 -0.41940686106681824 0.05945688486099243 -0.07360167801380157 0.2615436017513275 -0.24958908557891846 0.01119282841682434 -0.12337175756692886 0.029121777042746544 0.3721953332424164 0.01715105213224888 0.13909898698329926 0.11281176656484604 -0.10701458901166916 -0.06068035215139389 0.08927255868911743 0.25751569867134094 -0.04799312725663185 0.10047399252653122 0.10473698377609253 -0.07934905588626862 -0.010848973877727985 -0.04590325802564621 0.14346544444561005 -0.2116580456495285 -0.041014742106199265 0.09423979371786118 0.05307460576295853 0.18850819766521454 0.170765221118927 0.16393044590950012 0.5355782508850098 -0.20231342315673828 0.011717196553945541 -0.29912757873535156 -0.16570107638835907 0.03634998947381973 -0.15511442720890045 0.21909701824188232 0.004189781844615936 -0.13698804378509521
progress 0.15230172872543335 -0.12448379397392273 -0.08429846167564392 0.035749442875385284 0.06885933876037598 -0.018414128571748734 -0.06574202328920364 -0.18287430703639984 0.11656077206134796 0.00852822232991457 0.06483735144138336 0.10803477466106415 -0.12178533524274826 -0.06321713328361511 0.05637035146355629 0.045776255428791046 0.26138097047805786 0.25126954913139343 0.14639878273010254 0.0903141126036644 0.08155636489391327 -0.03291802853345871 0.08624159544706345 0.012592541053891182 0.10633514076471329 -0.02124890498816967 -0.24624668061733246 -0.06130465492606163 0.03381574898958206 0.18713204562664032 -0.09456304460763931 0.08558940142393112 -0.12927834689617157 0.08621443808078766 0.07751220464706421 0.10312531888484955 -0.0059926146641373634 -0.05776578560471535 -0.13869628310203552 0.03285049647092819 -0.12067881226539612 -0.18963435292243958 -0.14713582396507263 0.015631748363375664 0.03217855840921402 0.015614505857229233 -0.011632360517978668 -0.21481840312480927 -0.01173292938619852 0.0525067076086998 -0.08395253866910934 -0.10938899219036102 -0.07056506723165512 -0.0332929864525795 0.07987795770168304 0.03886224702000618 0.08370240777730942 0.11084901541471481 -0.21908123791217804 0.201379656791687 -0.013152900151908398 0.06045907363295555 -0.09822549670934677 -0.07816890627145767 -0.046953827142715454 0.008936261758208275 0.02967488020658493 0.06533396244049072 -0.053455255925655365 -0.153981015086174 -0.0820583775639534 -0.07549291849136353 0.1340375393629074 -0.06497924774885178 -0.1592520773410797 0.1482582539319992 -0.04071173071861267 -0.07411559671163559 0.041099898517131805 0.08703015744686127 -0.15193147957324982 0.08846095949411392 0.10256843268871307 0.06496730446815491 -0.045626528561115265 0.18068693578243256 -0.09091656655073166 0.12122991681098938 0.046353548765182495 0.04212351515889168 0.1485806703567505 0.06071600690484047 0.06633740663528442 0.01415250264108181 0.060215432196855545 0.049923598766326904 0.08078893274068832 0.0836263969540596 0.1152997612953186 0.05745860934257507 0.19330492615699768 0.069814532995224 -0.016752127557992935 0.09466054290533066 -0.11544396728277206 -0.047837838530540466 -0.10232581943273544 0.17668668925762177 0.19353756308555603 -0.05455561354756355 -0.21080856025218964 -0.08052976429462433 0.024559738114476204 0.15768887102603912 -0.005348226521164179 -0.055243439972400665 0.14006930589675903 0.052363671362400055 0.16898733377456665 -0.058140166103839874 0.19190384447574615 -0.021817583590745926 -0.04565742611885071 -0.09249498695135117 0.03978528827428818 0.18008968234062195 -0.05296720564365387 0.06940291076898575 -0.043095797300338745 0.10178995132446289 -0.05282551422715187 -0.1094457358121872 0.07315251976251602 0.023154595866799355 0.0787406787276268 -0.06637335568666458 0.018370354548096657 -0.046218033879995346 -0.07142289727926254 0.133576899766922 0.2558327317237854 -0.14511467516422272 0.01522538810968399 -0.18396222591400146 -0.0685058981180191 -0.11416084319353104 -0.035510871559381485 -0.07162371277809143 -0.1100902110338211 -0.10658273100852966
quartett 0.0490422286093235 -0.07087613642215729 -0.165289968252182 -0.04634607955813408 0.06780318915843964 0.070131815969944 -0.2171444147825241 -0.183959499001503 0.16349880397319794 0.03229132667183876 0.16901487112045288 -0.025796715170145035 -0.04948561266064644 0.0202906746417284 0.18885698914527893 -0.004019489511847496 0.1838231384754181 0.23602943122386932 0.2296876758337021 0.07269109785556793 0.1423998326063156 -0.039846450090408325 -0.003417487721890211 0.07401660084724426 0.15486358106136322 0.039599090814590454 -0.11342726647853851 0.04803831875324249 0.18949538469314575 0.16357868909835815 -0.0728662982583046 0.19162262976169586 -0.09410897642374039 0.11638614535331726 0.2029716521501541 0.1369718760251999 0.10820489376783371 -0.02278297208249569 -0.10943923145532608 0.17286041378974915 -0.2872997522354126 -0.23773710429668427 -0.18570899963378906 0.1131839007139206 0.048799727112054825 0.005203981418162584 -0.0569433830678463 -0.17961034178733826 -0.13309988379478455 0.03978759050369263 -0.0687405914068222 -0.26311904191970825 -0.06778035312891006 -0.07204494625329971 0.014807443134486675 0.18628741800785065 -0.0011726865777745843 0.18552815914154053 -0.24102962017059326 0.3139573633670807 0.02860361710190773 0.10323388129472733 -0.06670808047056198 -0.0804857537150383 0.042309850454330444 0.02589590661227703 -0.05678468942642212 -0.06263270974159241 -0.022351281717419624 -0.19306214153766632 0.02912275679409504 -0.043748218566179276 -0.08484818786382675 -0.26529526710510254 -0.3036351799964905 0.04549567028880119 -0.06987079232931137 -0.012878556735813618 0.08073151111602783 0.00835684034973383 -0.2218644767999649 0.13054904341697693 0.09465441852807999 0.0847327932715416 -4.6314721112139523E-4 0.08018365502357483 -0.07252725213766098 0.07657621800899506 -0.015205944888293743 -0.09265868365764618 0.08659384399652481 0.13845668733119965 0.07148541510105133 0.10762891918420792 0.19454249739646912 0.13656961917877197 0.05103153735399246 0.1699753850698471 0.16779768466949463 0.27648699283599854 0.1600496768951416 0.003648222191259265 0.04952167719602585 0.04315592348575592 -0.06555355340242386 -0.16009870171546936 -0.06340150535106659 0.2807319462299347 0.18566256761550903 0.09233880788087845 -0.25089266896247864 -0.007294044829905033 -0.005907239392399788 -0.001682480564340949 -0.10601750761270523 -0.04758468270301819 0.0205472931265831 0.14365306496620178 0.15908746421337128 -0.014401932246983051 0.15011927485466003 0.14991223812103271 -0.14506690204143524 -0.06362995505332947 0.05291789397597313 0.23799119889736176 -0.06690368056297302 0.1850903034210205 -0.060512203723192215 0.13813014328479767 -0.04213521629571915 -0.11333711445331573 0.049051713198423386 -0.06527874618768692 0.2697117030620575 -0.03231118246912956 -0.026464367285370827 -0.01010291837155819 -0.06443329155445099 0.2109132558107376 0.44593268632888794 -0.04269625246524811 -0.008892764337360859 -0.16881655156612396 0.13916578888893127 -0.24937298893928528 -0.09832500666379929 0.11513584107160568 0.027410365641117096 -0.06986571848392487
inhaltsverzeichnis 0.012506458908319473 -0.06314469873905182 -0.13508562743663788 -0.020105309784412384 -0.04524144157767296 0.06821347028017044 -0.09873877465724945 -0.15176764130592346 0.13056601583957672 -0.00775482039898634 0.12113886326551437 -0.01875498704612255 -0.08266541361808777 -0.054766926914453506 -7.592840120196342E-5 -0.06483098864555359 0.2357858419418335 0.14158189296722412 0.23510856926441193 0.022775597870349884 0.15095768868923187 -0.12065047025680542 0.12785659730434418 0.018588310107588768 0.07651036232709885 -0.011565969325602055 -0.1306290179491043 0.05330054461956024 0.05735935643315315 0.147233784198761 -0.09159380942583084 0.0876350849866867 -0.05935000628232956 0.05562219396233559 0.08811036497354507 0.13778352737426758 -0.029257988557219505 -0.04445602744817734 -0.02795768901705742 0.06145530194044113 -0.15136800706386566 -0.2042277455329895 -0.23228423297405243 0.027316682040691376 0.09143366664648056 -0.029171979054808617 0.0012156171724200249 -0.19930493831634521 -0.07214757055044174 0.016092823818325996 -0.030459299683570862 -0.09178964048624039 -0.08428210765123367 -0.05819202959537506 -0.00909600779414177 0.08328168094158173 0.0040587144903838634 0.02214527316391468 -0.17578399181365967 0.23735269904136658 -0.009685397148132324 0.0474543534219265 -0.09070345759391785 -0.1411597728729248 0.014921365305781364 -0.016544155776500702 -0.005043528508394957 0.02767646498978138 -0.06600654870271683 -0.12589439749717712 -0.016243424266576767 -0.06739699095487595 0.03548150509595871 -0.11127680540084839 -0.2378111034631729 0.10094409435987473 0.09115384519100189 -0.14281205832958221 0.05243673920631409 0.09051027148962021 -0.11208360642194748 0.09361094981431961 0.03609338030219078 0.11533153802156448 0.06628823280334473 0.15625742077827454 -0.04522234946489334 0.0714152604341507 -0.008792462758719921 0.009019415825605392 0.13966216146945953 0.06819091737270355 0.05415762960910797 0.02720193937420845 0.060528453439474106 0.12694601714611053 0.08308320492506027 0.11939959973096848 0.15164202451705933 0.13079524040222168 0.19010747969150543 -1.4077057130634785E-4 0.084637351334095 0.13232183456420898 -0.12359098345041275 -0.12806296348571777 -0.061424292623996735 0.12565280497074127 0.18798646330833435 -0.06433706730604172 -0.21796151995658875 -0.12601231038570404 0.002602503402158618 0.02845296822488308 5.622950848191977E-4 0.02012745290994644 0.07241414487361908 0.09050174802541733 0.134256511926651 -0.1487235426902771 0.17307645082473755 -0.006992420181632042 -0.16781102120876312 -0.1227417141199112 0.030401214957237244 0.1730276197195053 -0.07534165680408478 0.03718366473913193 -0.11949820816516876 0.06351261585950851 -0.15512357652187347 -0.12322722375392914 0.10144428163766861 0.043941810727119446 0.08777687698602676 0.04753794148564339 0.04165613651275635 -0.02362886443734169 -0.11256039142608643 0.13657927513122559 0.3064437806606293 -0.16847491264343262 0.001611076993867755 -0.19177204370498657 -0.03181066736578941 -0.11319629848003387 -0.06849232316017151 -0.08479879796504974 0.029760997742414474 -0.08456110209226608
berliner 0.2648182809352875 -0.005458176601678133 -0.2491317242383957 -0.05564379319548607 0.5070188045501709 -0.33198082447052 -0.7152702212333679 -0.16881437599658966 -0.18132643401622772 0.05127158388495445 0.3341338336467743 0.2626287639141083 -0.2879462242126465 0.20797744393348694 0.1881704330444336 0.37478742003440857 0.45739981532096863 0.8132635354995728 -0.053651776164770126 0.33410289883613586 -0.06313399970531464 0.040392857044935226 0.18347105383872986 0.17396999895572662 0.04660665988922119 -0.35337573289871216 -0.23773495852947235 -0.0643588975071907 0.07968536764383316 0.452526330947876 0.0538862869143486 0.30173131823539734 -0.19617654383182526 0.10483695566654205 0.22570624947547913 0.6209312677383423 0.1720690280199051 0.20063722133636475 -0.15569694340229034 0.27918606996536255 -0.40399792790412903 -0.4356621205806732 0.1664842665195465 -0.15445056557655334 0.09146220237016678 -0.09001439809799194 -0.07040605694055557 -0.061231259256601334 -0.28315240144729614 0.09800135344266891 -0.18431484699249268 -0.3407900929450989 -0.18659815192222595 0.054588984698057175 0.22455747425556183 0.23336750268936157 0.040712546557188034 0.04951302334666252 -0.12967316806316376 0.11307045072317123 0.09779710322618484 0.256027489900589 -0.31535646319389343 -0.23254984617233276 -0.29973649978637695 -0.18265703320503235 -0.013786043040454388 -0.23785196244716644 0.13190646469593048 -0.05047775059938431 -0.0578811876475811 0.09439298510551453 -0.06015526503324509 -0.02972540073096752 -0.14537544548511505 0.39912149310112 -0.27345576882362366 0.0046356129460036755 -0.24191322922706604 0.2933999001979828 0.06584247946739197 0.08668442815542221 0.040499795228242874 0.5340889096260071 -0.1356654018163681 0.02777775190770626 0.2569522559642792 -0.013656158931553364 0.10330726206302643 0.06195257231593132 -0.002528224606066942 0.05387422442436218 -0.09574618190526962 0.012118748389184475 0.5843793749809265 0.4395226538181305 0.02055170387029648 0.007139194291085005 0.391516774892807 -0.013615880161523819 0.3810019791126251 -0.03504456579685211 0.3280656635761261 0.2574100196361542 -0.2372281849384308 -0.012537279166281223 -0.20136003196239471 0.13483645021915436 0.09225018322467804 0.20926624536514282 -0.06645510345697403 0.019243424758315086 0.4464719295501709 0.09879908710718155 0.2971610426902771 0.01443258672952652 0.2078552395105362 0.3000980615615845 0.2147548943758011 0.2046097218990326 0.17195574939250946 -0.056796737015247345 0.39801058173179626 -0.24619022011756897 -0.006531262304633856 0.29245901107788086 0.09957445412874222 -0.008630308322608471 0.06900186091661453 0.4976446032524109 0.19982072710990906 0.3191086947917938 0.05759408324956894 -0.06978360563516617 0.36261945962905884 0.13139812648296356 -0.20685115456581116 -0.33355340361595154 0.2593125104904175 -0.031565479934215546 0.4306580424308777 0.0839550718665123 -0.03225789964199066 0.13153672218322754 0.03741135448217392 -0.2596614360809326 0.09075875580310822 0.3201933801174164 -0.18808788061141968 -0.25461557507514954
berlin-tegel 0.21147960424423218 -0.19644613564014435 -0.20453093945980072 -0.03849645331501961 0.07580263167619705 0.030405225232243538 -0.10505156219005585 -0.28446897864341736 0.3052941560745239 -0.09337306767702103 0.22134773433208466 0.025148971006274223 -0.07446137070655823 -0.03710758686065674 0.06503956764936447 -0.056190375238657 0.2333495020866394 0.33373093605041504 0.30701932311058044 -0.017419038340449333 0.009139878675341606 -0.2352863997220993 0.18031637370586395 0.14189158380031586 0.12484747916460037 -0.03989934176206589 -0.3130332827568054 -0.04030194506049156 -0.06924901157617569 0.35882654786109924 -0.15618330240249634 0.18339791893959045 -0.10189595073461533 0.15758755803108215 0.07303961366415024 0.21835428476333618 0.021488631144165993 -0.04244295880198479 -0.12149220705032349 0.09086045622825623 -0.31141114234924316 -0.22710610926151276 -0.1543629765510559 -0.0444241538643837 0.09605476260185242 -0.03490990772843361 -0.001488630659878254 -0.24654421210289001 -0.011181099340319633 -0.03834893926978111 -0.03401227667927742 -0.08391796797513962 -0.043218567967414856 -0.07515842467546463 -0.014375442638993263 0.12785935401916504 0.14826400578022003 0.197503462433815 -0.24498595297336578 0.3254554271697998 -0.030768023803830147 0.08203789591789246 -0.14447078108787537 -0.07494856417179108 -0.05690898001194 0.03411674499511719 -0.03586845472455025 0.05791701003909111 -0.013003184460103512 -0.2229541391134262 -0.05254356563091278 -0.06369098275899887 0.07941940426826477 -0.24371762573719025 -0.2524871528148651 0.15050159394741058 -0.030188867822289467 -0.14620299637317657 0.15065337717533112 0.21885764598846436 -0.15564405918121338 0.12909378111362457 0.12018077820539474 0.161472350358963 0.037863943725824356 0.2460615038871765 -0.1365189105272293 0.20141462981700897 0.10785891860723495 -0.06633462756872177 0.19754886627197266 0.08481372147798538 0.1963769942522049 0.09204932302236557 0.012980584055185318 0.15925340354442596 0.16032469272613525 0.12200866639614105 0.1881890445947647 0.19668741524219513 0.3091340661048889 0.09965609759092331 0.04766267538070679 0.2057313323020935 -0.22356173396110535 -0.1353483647108078 -0.038756322115659714 0.2536366283893585 0.3265903890132904 -0.06382760405540466 -0.18850933015346527 -0.20651988685131073 0.12202676385641098 0.06071275472640991 -0.06903932988643646 0.026827730238437653 0.08039594441652298 0.1772449016571045 0.3515653908252716 -0.014441036619246006 0.24533338844776154 -0.09722811728715897 -0.10281655192375183 -0.24439282715320587 0.06988556683063507 0.3429063856601715 -0.10375582426786423 0.10921123623847961 -0.040998250246047974 0.3117896318435669 -0.09928238391876221 -0.18203237652778625 0.03874768316745758 0.12495952844619751 0.110009104013443 -0.10980753600597382 -0.008454941213130951 -0.020051024854183197 -0.03648431599140167 0.26032623648643494 0.3713219165802002 -0.2163342982530594 -0.06624623388051987 -0.31176525354385376 -0.09786242991685867 -0.13370496034622192 -0.12364645302295685 -0.07754932343959808 0.03128454089164734 -0.21955090761184692
westberlin 0.06707180291414261 -0.11419413983821869 -0.01962834782898426 0.006712098605930805 0.08770572394132614 -0.00831939559429884 -0.12978753447532654 -0.19079908728599548 0.16311588883399963 0.05585213378071785 0.06501849740743637 0.08881126344203949 -0.05762556195259094 0.004679915960878134 0.027304891496896744 0.0619550496339798 0.29086801409721375 0.32233789563179016 0.1908782422542572 0.11461816728115082 0.06950616836547852 0.008634771220386028 0.058759886771440506 0.06285283714532852 0.07749719172716141 -0.06290803849697113 -0.20627790689468384 0.02722478099167347 0.11409404128789902 0.21479082107543945 -0.03389890864491463 0.07928849011659622 -0.05493645742535591 0.13346044719219208 0.17235508561134338 0.10049343854188919 0.005242330487817526 0.01763567514717579 -0.1176936998963356 0.1977999210357666 -0.06514113396406174 -0.15481874346733093 -0.04568127542734146 -0.0040750084444880486 0.04970485717058182 -0.019300641492009163 0.042510244995355606 -0.270997017621994 -0.17659905552864075 0.11656719446182251 -0.09870383143424988 -0.05193644389510155 -0.031775228679180145 0.03400738909840584 0.17249424755573273 0.10618218779563904 0.04966184124350548 -0.003786927554756403 -0.16972066462039948 0.21971125900745392 -0.030100444331765175 0.049732208251953125 -0.13603852689266205 -0.12812122702598572 -0.10746491700410843 0.023112356662750244 -0.09307374805212021 -0.018937811255455017 -0.04476189240813255 -0.1428438276052475 -0.09391973167657852 -1.9370554946362972E-4 0.026560381054878235 -0.19267891347408295 -0.034453265368938446 0.03358577564358711 -0.07428491115570068 -0.024435441941022873 0.003650940954685211 0.08743027597665787 -0.059567891061306 0.23077364265918732 0.07562378793954849 0.07231402397155762 0.00827791728079319 0.1516253799200058 -0.07163579016923904 0.18273955583572388 0.06434599310159683 0.05585888400673866 0.13802941143512726 0.12070152908563614 0.048191215842962265 0.07042962312698364 0.15989495813846588 0.13118843734264374 0.07245519757270813 0.09204816818237305 0.18692483007907867 0.040098655968904495 0.22186030447483063 0.036275699734687805 0.07251355797052383 0.15151125192642212 -0.12919029593467712 -0.10742715001106262 -0.1527513861656189 0.13589148223400116 0.25096985697746277 0.11836205422878265 -0.21718987822532654 -0.22133950889110565 0.110010527074337 0.11666655540466309 0.07535844296216965 -0.091885045170784 0.17728587985038757 0.11186771839857101 0.12458507716655731 0.04683786258101463 0.2098873406648636 -0.05000435560941696 -0.04408717527985573 -0.14022082090377808 0.026836421340703964 0.16663366556167603 -0.06870245933532715 0.12628291547298431 -0.05085808038711548 0.12594982981681824 -0.1473742127418518 -0.17149043083190918 -0.09779617935419083 -0.014700612053275108 0.1281830072402954 -0.06134849041700363 -0.04177697375416756 -0.061684682965278625 -0.06521855294704437 0.07547860592603683 0.266160786151886 -0.1365441381931305 0.048816557973623276 -0.3394148051738739 0.015935102477669716 -0.05164465680718422 0.10753213614225388 -0.030464058741927147 -0.012603728100657463 -0.05595022439956665
ost-berlin 0.36171096563339233 -0.15984386205673218 -0.040010061115026474 -0.10471334308385849 -0.09324830770492554 -0.0782020166516304 -0.29952651262283325 -0.3337312340736389 0.028847478330135345 -0.02685374766588211 -0.12315946817398071 -0.062148235738277435 0.04329968988895416 0.135995015501976 -0.08785805106163025 0.20185557007789612 0.6185310482978821 0.5745619535446167 0.2997383773326874 0.0766696110367775 -0.1560150384902954 0.10964975506067276 0.08482218533754349 0.22312697768211365 -0.23815539479255676 -0.013264806941151619 -0.12119260430335999 -0.13995131850242615 0.46164175868034363 0.2511811852455139 -0.04347578063607216 0.22374294698238373 -0.22243601083755493 0.24488244950771332 0.1977778524160385 0.2987242043018341 0.18883337080478668 -0.14773353934288025 -0.10000404715538025 0.20093508064746857 -0.031997889280319214 -0.13660407066345215 -0.05883732810616493 0.05618882179260254 -0.03159064054489136 -0.11341623961925507 0.01328830886632204 -0.07636155188083649 -0.40654128789901733 0.2560967803001404 0.0091848848387599 -0.31322747468948364 -0.23629097640514374 0.043562982231378555 0.5376302003860474 -0.031159549951553345 -0.04070249944925308 0.06662755459547043 -0.17986096441745758 0.09173323214054108 0.11219649016857147 0.14950309693813324 -0.0806262269616127 -0.25121766328811646 -0.18107183277606964 -0.005252135917544365 -0.18122747540473938 -0.30272921919822693 -0.1733999401330948 0.007939547300338745 0.03501858562231064 -0.07407457381486893 0.11521584540605545 -0.0407971628010273 -0.16588544845581055 0.1464928686618805 -0.17357958853244781 0.07530345022678375 -0.0636816993355751 0.12755060195922852 -0.0644465833902359 0.4707055389881134 -0.06463132053613663 0.2207719385623932 0.12034426629543304 0.3523823022842407 -0.003338261041790247 0.1323588788509369 0.26002931594848633 0.11426667124032974 0.20114809274673462 0.11476705968379974 0.3407928943634033 -0.007949101738631725 -0.059484973549842834 0.4729698896408081 0.260719895362854 0.142833411693573 0.11003650724887848 0.21175281703472137 0.22996364533901215 -0.09595222026109695 0.15931132435798645 0.21068936586380005 -0.12272904068231583 -0.024440888315439224 -0.5115151405334473 0.037078600376844406 0.2213529795408249 0.21998567879199982 -0.00911448709666729 -0.18314343690872192 0.296902060508728 0.13022202253341675 -0.0992492288351059 -0.011486468836665154 0.31625378131866455 0.14675535261631012 0.1943829506635666 0.055678050965070724 0.03639741986989975 -0.1667805165052414 -0.05545102432370186 -0.34841084480285645 -0.3004057705402374 0.25078585743904114 -0.2679526209831238 -0.015323321335017681 -0.16330362856388092 0.2568272054195404 0.03466258943080902 0.039802707731723785 -0.2506104111671448 0.054546114057302475 0.13440439105033875 0.04661443457007408 -0.20430245995521545 -0.06332657486200333 0.0026657050475478172 0.10736951231956482 0.3162924349308014 -0.05995355546474457 0.04428507760167122 -0.520387589931488 0.05986343324184418 -0.1058984100818634 0.03495290130376816 0.06476642191410065 0.006221489980816841 -0.1685817986726761
berlin 0.5932738184928894 -0.06508997082710266 -0.1926596313714981 -0.22968828678131104 0.2051994353532791 -0.2307332158088684 -0.3613157868385315 -0.270883709192276 -0.2787971496582031 0.2667995095252991 0.09329374134540558 -0.21097813546657562 0.07805683463811874 0.11660636216402054 -0.25456899404525757 0.2482292503118515 0.5027906894683838 0.7787398099899292 0.5681543946266174 0.018283739686012268 -0.02980375662446022 -0.2631734311580658 0.11385234445333481 0.437747061252594 -0.34775876998901367 -0.14756475389003754 -0.2675764858722687 -0.14315886795520782 0.5587885975837708 0.2054915875196457 -0.20471955835819244 0.2146214097738266 -0.12194035202264786 0.5384357571601868 0.24936296045780182 0.41257598996162415 0.12097849696874619 -0.22828368842601776 -0.10308147221803665 0.2297907918691635 -0.15110202133655548 -0.2949422001838684 -0.026749566197395325 0.08787800371646881 0.1824013590812683 -0.04347074031829834 0.13035129010677338 0.07291645556688309 -0.5351560115814209 0.15229983627796173 -0.09927786886692047 -0.27326613664627075 -0.012560294009745121 0.10332220047712326 0.15889282524585724 0.002966102212667465 -0.004675369244068861 -0.10246222466230392 -0.12608091533184052 0.16459347307682037 0.24884845316410065 -0.05181645601987839 -0.20139147341251373 -0.06589742749929428 -0.27021360397338867 -0.28166505694389343 0.09109854698181152 -0.01976904086768627 -0.04016437754034996 0.0692036896944046 -0.058992933481931686 0.10116401314735413 0.22199776768684387 0.05181582644581795 -0.1898346096277237 0.38863831758499146 0.15433913469314575 0.2182101309299469 -0.01600588671863079 0.5443477630615234 -0.00483656907454133 0.7270087599754333 -0.13585062325000763 0.2757033705711365 0.020857922732830048 0.26714569330215454 0.21757379174232483 -0.053610436618328094 0.3140634596347809 0.12600399553775787 0.19246484339237213 -0.0630904957652092 0.487685889005661 -0.006106105167418718 0.24030464887619019 0.4730498492717743 0.4426596462726593 0.11034698039293289 0.05292198434472084 0.20464488863945007 0.20346014201641083 -0.18020665645599365 0.4543304443359375 0.25040826201438904 0.1972023844718933 -0.3502673804759979 -0.6188879013061523 0.1023041307926178 0.17777679860591888 0.06767960637807846 0.09926581382751465 0.3270082473754883 0.2242565006017685 0.1516709178686142 0.1419496387243271 -0.010190505534410477 0.28420403599739075 0.36042195558547974 0.25100401043891907 0.12973730266094208 0.15482202172279358 -0.09343990683555603 0.014987166039645672 -0.24552424252033234 -0.1744425743818283 0.28011178970336914 -0.31098225712776184 0.25577110052108765 5.614802648779005E-5 0.4162365794181824 0.21076756715774536 0.3748541474342346 -0.10707136243581772 0.17078419029712677 0.3008590340614319 0.26933708786964417 -0.0042267972603440285 -0.33447521924972534 0.20740698277950287 -0.15196123719215393 0.41954943537712097 -0.07995160669088364 0.013709484599530697 -0.3851829171180725 0.24772106111049652 -0.020837955176830292 0.1630200296640396 0.3292752802371979 -0.09827441722154617 -0.0746774971485138
west-berlin 0.2657201886177063 -0.11715143173933029 -0.020580636337399483 -0.46215349435806274 -0.06137058138847351 -0.10810793191194534 -0.39115142822265625 -0.19727371633052826 -0.005882791243493557 -0.08273059874773026 0.12560416758060455 -0.22302907705307007 0.005149955861270428 0.15568143129348755 0.2515510022640228 0.348434716463089 0.4969877600669861 0.664690375328064 0.3616584837436676 0.009494904428720474 -0.0808224081993103 0.19475264847278595 0.146516352891922 0.3537278175354004 -0.3123132884502411 0.04751398041844368 -0.28837820887565613 -0.17481522262096405 0.5270825028419495 0.2954552173614502 0.015482675284147263 0.2674793303012848 -0.1638132780790329 0.32071349024772644 0.20388175547122955 0.21722029149532318 -0.14611640572547913 -0.05825241655111313 -0.06462375819683075 0.1505536288022995 -0.1036723330616951 -0.14397849142551422 -0.022729787975549698 -0.01561614591628313 -0.12954755127429962 0.018110714852809906 -0.11010761559009552 0.07452000677585602 -0.24762366712093353 0.34890666604042053 0.15181611478328705 -0.4881938099861145 -0.25523900985717773 0.1188124343752861 0.5406045913696289 0.09941903501749039 0.09329678118228912 0.17857639491558075 -0.28226813673973083 0.026148304343223572 0.19301235675811768 0.24445979297161102 -0.12796905636787415 -0.10755626112222672 -0.2092759758234024 -0.21096917986869812 -0.11428524553775787 -0.24612171947956085 -0.33912113308906555 -0.04556810483336449 -0.16217869520187378 -0.29400235414505005 0.021267326548695564 -0.05743927136063576 0.07904117554426193 0.05459814518690109 -0.08783318847417831 0.07773199677467346 -0.0796593502163887 0.05561553314328194 0.0568949393928051 0.3987278342247009 -0.13848090171813965 -0.07397954910993576 0.12372687458992004 0.5392104387283325 -0.20106564462184906 0.03432420641183853 0.5506783723831177 0.14965596795082092 0.17807996273040771 0.08656482398509979 0.243375763297081 -0.2378547638654709 -0.03670060634613037 0.32495689392089844 0.04663727059960365 0.019963325932621956 0.0481068380177021 0.1748005747795105 0.26189276576042175 0.0027848505415022373 0.2516220808029175 0.3660874366760254 -0.13268646597862244 -0.09208725392818451 -0.44584131240844727 0.12247010320425034 0.2513955533504486 0.3302159309387207 -0.01582835055887699 -0.18328942358493805 0.32740381360054016 0.0018265743274241686 0.10629172623157501 -0.09188872575759888 0.44545966386795044 0.20830027759075165 0.4100188612937927 0.2219306081533432 0.07701237499713898 -0.22010625898838043 -0.1893463134765625 -0.16961531341075897 -0.09247160702943802 0.2603291869163513 -0.23149614036083221 0.2555895745754242 -0.18854333460330963 0.35393160581588745 0.15332679450511932 -0.052215661853551865 -0.2902628183364868 -0.045559998601675034 -0.245697021484375 0.27843722701072693 0.017739223316311836 0.05489150807261467 -0.2427695095539093 0.27491307258605957 0.3290438652038574 -0.19073210656642914 0.15930205583572388 -0.310375452041626 0.10618497431278229 0.05833921581506729 0.10441745817661285 0.1205996498465538 0.009058845229446888 -0.1190141811966896
berlin-wedding 0.0763528048992157 -0.08184352517127991 -0.02971447817981243 0.004259484354406595 0.008811280131340027 0.03834033012390137 -0.05073252320289612 -0.06353733688592911 0.04349743574857712 -0.013487073592841625 0.026879319921135902 0.011661108583211899 -0.009815073572099209 0.0013647840823978186 0.026434101164340973 0.02764396369457245 0.12283351272344589 0.09503590315580368 0.08177447319030762 0.0363367535173893 0.06579489260911942 -0.025830723345279694 0.03920222818851471 0.01510054524987936 0.03489226847887039 -0.05954132601618767 -0.07811473309993744 -0.027123350650072098 0.03959938883781433 0.08297131210565567 -0.02129722386598587 0.05129940062761307 -0.04664171114563942 0.0580507256090641 0.06100212037563324 0.031969085335731506 0.014577667228877544 -0.036029186099767685 -0.04179693013429642 -0.015209900215268135 -0.06975147873163223 -0.054807938635349274 -0.06740821152925491 0.019905630499124527 0.010065026581287384 9.775571525096893E-4 -0.014500539749860764 -0.06976558268070221 -0.01754734106361866 0.03252734616398811 -0.03000127337872982 -0.049848105758428574 -0.03648114204406738 0.011317907832562923 0.07477854937314987 -0.0015981760807335377 0.05455338954925537 0.017594359815120697 -0.09324100613594055 0.10237550735473633 0.056552350521087646 0.015009406954050064 -0.04785412549972534 -0.050634950399398804 -0.009604469873011112 -0.006361156702041626 0.009326335042715073 0.03244980424642563 -0.033290088176727295 -0.056288886815309525 -0.03549308329820633 -0.015245364047586918 0.03682047128677368 -0.04932331293821335 -0.0688830241560936 0.07367734611034393 0.013425348326563835 -0.009793097153306007 -0.02307996153831482 0.05831538140773773 -0.05903460830450058 0.06634698808193207 -0.010408038273453712 0.0649961307644844 0.012635149993002415 0.1103719174861908 -0.05036124959588051 0.03516760841012001 0.024952201172709465 5.381444934755564E-4 0.02945861965417862 0.007200285792350769 0.06620845943689346 0.005707730073481798 0.016443058848381042 0.06217755377292633 0.05812111124396324 0.007696915417909622 0.05658942461013794 0.06319163739681244 0.08733931183815002 0.005757043603807688 0.029309198260307312 0.06377344578504562 -0.06378117948770523 -0.053451377898454666 -0.05026701092720032 0.09939426928758621 0.015759535133838654 -0.04417043924331665 -0.11493153870105743 -0.006046942435204983 0.03821710869669914 0.03719675540924072 -0.028875084593892097 -0.01029354240745306 0.07100412994623184 0.025039009749889374 0.07240805774927139 -0.04397449642419815 0.05236070603132248 -0.016308307647705078 -0.01906857080757618 -0.04047459363937378 0.008382895961403847 0.09055996686220169 -0.0646289512515068 0.03181958198547363 -0.025366615504026413 0.03874606266617775 -0.017910422757267952 -0.0033909284975379705 0.030272018164396286 0.0036937654949724674 0.03106236830353737 -0.01218058355152607 0.017641432583332062 -0.013896699994802475 0.01567358896136284 0.054142680019140244 0.11517464369535446 -0.07791471481323242 0.01723264344036579 -0.09095902740955353 -0.0057695042341947556 -0.03800230473279953 -0.008593295700848103 0.008094405755400658 -0.013888634741306305 -0.05372323840856552
hirschkuh 0.188599094748497 -0.17356474697589874 0.03211928904056549 -0.024889392778277397 0.04694909602403641 0.03638673201203346 -0.10901136696338654 -0.21032269299030304 0.15456871688365936 0.03869912400841713 0.006174452602863312 0.08177460730075836 -0.10049296915531158 -0.00500238174572587 0.1332874447107315 0.05195225402712822 0.25330522656440735 0.14362873136997223 0.11960803717374802 0.1558701992034912 0.14115788042545319 -0.0752890408039093 0.06418077647686005 0.0054420712403953075 0.16625040769577026 -0.1522912085056305 -0.21745048463344574 -0.04367548227310181 0.06732646375894547 0.18046152591705322 -0.0724698081612587 0.06913301348686218 -0.1970035284757614 0.07305750995874405 0.021017560735344887 0.0800013467669487 0.0839676707983017 -0.020716508850455284 -0.024783888831734657 0.01912446692585945 -0.0711616650223732 -0.24372035264968872 -0.12635332345962524 0.12062960863113403 0.035157013684511185 -0.004134303890168667 -0.03407084196805954 -0.24270424246788025 0.025430217385292053 0.05737979710102081 -0.08650939911603928 -0.08308611810207367 -0.024694666266441345 -0.055519502609968185 0.17700669169425964 0.038854412734508514 0.09886042773723602 0.12688785791397095 -0.19462190568447113 0.2736981213092804 0.09530723839998245 -0.056354377418756485 -0.07827107608318329 -0.06009065359830856 -0.016197331249713898 0.03995262086391449 0.10147994756698608 0.031563181430101395 -0.02668190933763981 -0.1626407355070114 -0.08282314240932465 -0.09831586480140686 0.06861953437328339 -0.11891363561153412 -0.07528325915336609 0.16215230524539948 0.05735669285058975 -0.009596707299351692 0.0759560763835907 0.1692754626274109 -0.06166898086667061 0.12056241929531097 0.11636897176504135 0.08135411143302917 0.013780386187136173 0.14778511226177216 -0.13476818799972534 0.09407484531402588 0.012894511222839355 0.018209008499979973 0.12559174001216888 0.02898387797176838 0.08931667357683182 0.04009504243731499 0.01238815113902092 0.12242750823497772 0.12694551050662994 0.04719598963856697 0.20886678993701935 0.0264446884393692 0.23772895336151123 -0.030828040093183517 0.03413933515548706 0.08284540474414825 -0.15488633513450623 -0.0422334261238575 -0.12219150364398956 0.13503596186637878 0.14572498202323914 -0.07885486632585526 -0.23696814477443695 -0.06798282265663147 0.040508899837732315 0.06568492203950882 0.04944537952542305 0.003116987179964781 0.1721811145544052 -0.08315598964691162 0.14755097031593323 -0.10514423251152039 0.07901465147733688 0.0014126942260190845 -0.07750291377305984 -0.10907229036092758 0.02651241607964039 0.17702250182628632 -0.07682468742132187 0.18583664298057556 -0.06465023010969162 0.16029351949691772 -0.1298692673444748 -0.14676786959171295 0.07920324057340622 -0.05264417454600334 0.1201167181134224 -0.04735386371612549 0.021053409203886986 -0.051579367369413376 -0.06321848183870316 0.1949589103460312 0.4246255159378052 -0.08745159953832626 0.177926704287529 -0.18228013813495636 -0.0448695607483387 -0.07563401758670807 -0.0554669052362442 -0.08581679314374924 0.07371309399604797 -0.06927195936441422
kuestenstrasse 0.04929681494832039 -0.06801159679889679 -0.022236935794353485 0.01453370787203312 0.05737745761871338 -0.03334565460681915 0.02603769674897194 -0.13471002876758575 0.10144501179456711 -0.020306307822465897 0.05981186032295227 0.05634688958525658 -0.010918807238340378 0.01958153024315834 -0.0181750301271677 0.08025918155908585 0.17691291868686676 0.1061377003788948 0.057218413800001144 0.06665564328432083 0.06924029439687729 0.04197501391172409 0.07934682071208954 -0.015074159950017929 0.0688798651099205 -0.06470302492380142 -0.15191517770290375 -0.01217777468264103 0.014500117860734463 0.09308432787656784 -0.05764079838991165 0.04395867884159088 -0.0032278404105454683 0.045168306678533554 0.08021946251392365 0.035492535680532455 -0.030704449862241745 -0.019824193790555 -0.04746851325035095 0.04104100540280342 -0.038582898676395416 -0.08454294502735138 -0.032304223626852036 -0.01611165516078472 -9.389622136950493E-4 -0.007864242419600487 -0.008455546572804451 -0.11320972442626953 -0.036418117582798004 0.02259664610028267 -0.0551702119410038 -0.022321462631225586 0.0012248378479853272 0.025050070136785507 0.028810743242502213 0.011691603809595108 0.06337586790323257 0.027277952060103416 -0.1157955527305603 0.1049615740776062 0.0033650463446974754 0.026185745373368263 -0.05023502558469772 0.010825860314071178 -0.04592881351709366 0.08622096478939056 -0.001124916598200798 0.027460606768727303 0.00569270271807909 -0.08885130286216736 -0.031634025275707245 -0.04820648580789566 0.07107537239789963 -0.09518115222454071 -0.08970493078231812 0.0957006886601448 -0.02942967787384987 -0.02043147385120392 0.013009477406740189 0.08379698544740677 -0.05980898067355156 0.08234976977109909 0.08725205808877945 0.06664656102657318 0.04724343121051788 0.08929765969514847 -0.047990188002586365 0.0933498814702034 0.01325182057917118 0.04816823452711105 0.081425741314888 0.028777483850717545 0.04568995535373688 0.038791507482528687 0.07075420022010803 0.0663372129201889 0.04422427713871002 0.03326614946126938 0.0886395052075386 0.012875227257609367 0.16958199441432953 0.017766883596777916 -0.013371948152780533 0.06508325040340424 -0.10965342819690704 -0.0321776419878006 -0.07546984404325485 0.1206180527806282 0.12726521492004395 -0.03631580248475075 -0.12872256338596344 -0.0551808662712574 0.019667435437440872 0.06157958507537842 0.03949280455708504 -0.035353824496269226 0.08579416573047638 0.03435103967785835 0.06500206887722015 -0.03298206254839897 0.11056273430585861 -0.027181169018149376 -0.03665380924940109 -0.09597764909267426 0.0014095732476562262 0.07103834301233292 -0.0535128153860569 0.0308331698179245 -0.03638305142521858 0.0852556973695755 -0.022533055394887924 -0.08823323249816895 -0.00725784245878458 0.009327002801001072 0.06519047170877457 -0.0726347491145134 0.012030930258333683 -0.028519293293356895 -0.05583532154560089 0.06415701657533646 0.15616059303283691 -0.11861192435026169 -0.006599778775125742 -0.131672203540802 -0.01909751445055008 -0.07415790855884552 -0.004399513825774193 -0.06954705715179443 -0.024077389389276505 -0.03665988892316818
#-minuten-takt 0.04513321444392204 -0.06776166707277298 -0.04694168269634247 -0.05620541796088219 0.02979825809597969 0.02693454921245575 -0.029133519157767296 -0.1090797632932663 0.08425164967775345 -0.004982342943549156 0.10801012814044952 0.04297878220677376 -0.0438954196870327 -0.05859660357236862 0.04434167593717575 0.034889329224824905 0.19879980385303497 0.14420270919799805 0.19253790378570557 -0.032908037304878235 0.06758386641740799 -0.08532913029193878 0.07142474502325058 0.02143849804997444 0.007927348837256432 -0.024632258340716362 -0.14190906286239624 -0.010236402973532677 0.024768564850091934 0.09065020084381104 -0.02445346862077713 0.027277275919914246 0.012761006131768227 0.10310336947441101 0.11393065750598907 0.04392845556139946 -0.04543007165193558 1.0145246051251888E-5 -0.07027074694633484 -0.008414682000875473 -0.13527095317840576 -0.17374110221862793 -0.09896484762430191 -0.03802363947033882 0.03501736745238304 0.0021160130854696035 0.026480790227651596 -0.17481154203414917 -0.04592856764793396 0.028086893260478973 -0.026099037379026413 -0.05254291370511055 -0.017144326120615005 -0.015076004900038242 -0.0028409252408891916 0.03763203322887421 0.0955391526222229 0.03982272371649742 -0.15170136094093323 0.17208239436149597 0.06946855038404465 0.0642944797873497 -0.06715968996286392 -0.04707358032464981 0.049868520349264145 -0.017924364656209946 -0.00921054556965828 0.0379616916179657 0.0023807622492313385 -0.07845078408718109 -0.0071347374469041824 -0.03802831843495369 0.07148963958024979 -0.08154916763305664 -0.11831981688737869 0.0682084858417511 0.046890221536159515 -0.06513848900794983 0.030628349632024765 0.11458197236061096 -0.10750024765729904 0.10158248245716095 0.07435410469770432 0.04578021541237831 0.07275247573852539 0.16074225306510925 -0.05562456697225571 0.08078090846538544 0.010592359118163586 -0.003434225684031844 0.09360312670469284 0.05832679569721222 0.025202477350831032 0.02557421289384365 0.03415822237730026 0.029784243553876877 0.05821893736720085 0.03337207809090614 0.12687742710113525 0.0923432782292366 0.17726042866706848 0.05000077560544014 -0.03454020991921425 0.09752251207828522 -0.061606597155332565 -0.059858739376068115 -0.03082231804728508 0.08840940147638321 0.14997638761997223 -0.005851767025887966 -0.17736166715621948 -0.10700037330389023 0.008659496903419495 0.039755929261446 -0.03930295631289482 -0.006755667272955179 0.07865963876247406 0.075970359146595 0.1312313675880432 -5.820585647597909E-4 0.11587337404489517 -0.0053297849372029305 -0.05470960959792137 -0.11004423350095749 0.0751756876707077 0.15317589044570923 -0.036458127200603485 0.05381796881556511 -0.05905584245920181 0.12672457098960876 -0.018369166180491447 -0.07812439650297165 0.01272263377904892 -0.017179828137159348 0.027334626764059067 0.013732020743191242 0.06842107325792313 -0.0030623332131654024 -0.10145770758390427 0.12097500264644623 0.1719897985458374 -0.07390302419662476 0.03555252403020859 -0.17548871040344238 -0.0254965927451849 -0.04388804733753204 -0.003815806470811367 -0.045804157853126526 -0.054836321622133255 -0.10331277549266815
